-0.028900
0.023274
-0.031313
0.018979
0.020216
0.027458
0.031258
-0.014713
-0.011411
-0.016239
-0.007965
0.016942
0.004588
-0.002653
-0.010208
0.014359
-0.004366
-0.010723
0.004692
0.003612
-0.016967
-0.008111
0.011958
0.009713
-0.022111
0.015200
-0.020920
0.002775
0.021071
-0.025993
-0.018369
-0.018907
-0.008955
0.015127
0.015351
0.002051
-0.015513
-0.003146
-0.029765
0.017106
0.014605
0.008383
0.002477
-0.019508
-0.012998
0.022221
-0.014684
0.011673
-0.003512
0.031280
-0.022078
0.016545
0.024457
0.003541
0.011321
0.006754
-0.016872
-0.011135
-0.010493
-0.015265
0.021268
-0.029968
-0.011052
0.000942
-0.028446
-0.024081
0.024926
0.006969
0.008561
0.018036
-0.005958
0.027369
-0.003357
-0.030519
-0.020518
-0.016189
0.015124
0.002297
-0.008894
0.017391
-0.018927
0.012882
-0.031420
-0.013344
-0.013985
0.017303
0.002093
-0.014802
-0.008090
-0.012159
-0.030734
0.000069
-0.016647
-0.024990
-0.027076
0.026238
0.009771
-0.017844
0.013008
0.004336
-0.012686
-0.017008
-0.003759
-0.029010
-0.020045
-0.014416
0.003400
0.001345
0.013529
0.008017
0.003902
-0.028226
0.004987
0.025621
0.011516
-0.012211
0.008673
-0.029130
-0.014939
0.031141
0.029595
-0.020741
-0.000486
0.011855
-0.022891
0.011945
0.018736
-0.028820
0.006790
0.012598
-0.027976
0.003748
0.029757
-0.020251
0.008640
0.022874
0.027915
-0.026279
0.028812
-0.003982
0.017856
-0.031267
0.021750
0.014988
0.024741
0.022007
0.000113
-0.022300
-0.004058
-0.021128
0.008535
-0.007870
-0.018778
-0.007957
0.005054
-0.009616
-0.016673
0.011307
-0.021383
-0.006017
-0.013349
-0.028997
-0.031378
0.014243
0.001670
-0.008374
0.025895
0.025759
0.000199
-0.001948
0.025123
0.013893
0.004338
-0.026032
-0.020907
0.002312
-0.004183
0.018051
-0.027139
0.015299
0.017653
0.020939
0.010595
-0.020062
-0.023114
0.011116
0.003641
-0.007965
0.017873
0.022398
0.005850
-0.014687
-0.016006
0.029122
0.007248
-0.007288
0.001732
0.029556
-0.027494
0.020648
0.002560
-0.031032
0.012780
-0.001999
0.012889
0.010114
0.027166
0.024818
0.003819
-0.027784
0.014094
0.024323
0.023700
0.012283
0.022506
0.024319
0.017728
0.020703
0.010179
-0.027106
-0.020013
-0.019602
-0.029802
0.026522
0.012048
0.011119
-0.014281
-0.026989
0.005293
-0.002313
-0.030945
0.011768
-0.007153
-0.017068
-0.021817
0.004580
-0.020572
0.027723
0.008429
0.026184
0.002540
-0.012921
0.013005
0.000904
0.023510
0.012937
0.012172
0.027808
0.007600
-0.027817
-0.025227
0.012505
-0.011446
0.018433
0.022727
0.019610
-0.000780
-0.002771
-0.003943
-0.029519
0.023876
-0.031030
0.014780
-0.022363
0.029752
0.008245
0.021113
0.025003
0.008308
-0.024751
-0.028974
0.001465
0.000655
-0.016072
0.008913
0.018705
0.025147
0.008230
0.020312
0.030789
-0.010166
-0.020362
-0.026422
0.012371
0.018557
0.021995
-0.025588
-0.004193
-0.020186
0.004073
0.024157
-0.018699
0.023751
0.021634
-0.008441
0.022709
0.015268
0.031075
-0.004676
0.002185
-0.031304
-0.000333
-0.020215
0.021583
0.001667
-0.028562
-0.002893
-0.006835
0.002452
0.004613
-0.010243
0.007676
0.009921
-0.022830
0.020240
0.025210
0.005681
0.001582
0.005379
-0.031264
0.018333
-0.012874
0.020415
-0.017326
-0.014811
0.000603
-0.001105
0.002754
-0.025359
0.029402
-0.002520
0.005925
-0.017359
0.031593
0.006757
0.019710
-0.004348
-0.012944
0.026580
-0.005304
0.001468
-0.002461
0.002941
-0.030513
0.024402
-0.018413
0.011455
-0.001222
0.024101
0.029024
0.027949
0.000853
0.029198
0.003384
-0.025457
0.005854
-0.021402
-0.012282
-0.003764
0.031011
-0.023256
0.011620
0.027351
-0.021393
-0.000242
0.008542
0.000683
0.023598
0.012513
-0.017127
-0.026072
0.020584
-0.026750
-0.001990
0.021458
0.022658
0.029066
0.027616
0.005231
-0.017857
-0.000018
-0.024109
-0.012861
0.021551
0.022776
0.013169
0.025966
-0.012667
-0.009420
-0.004444
0.024711
0.007536
0.019456
0.009662
0.014384
0.020026
0.030398
0.030987
0.005262
-0.023751
-0.027476
-0.006720
-0.006291
0.000595
-0.027807
-0.020452
-0.001422
-0.003579
0.028520
0.029377
-0.010841
-0.002247
-0.024515
-0.010582
-0.023758
-0.015791
0.015240
0.020487
-0.022702
-0.016613
0.028293
-0.026469
0.014106
0.017027
-0.024822
0.028262
-0.001507
0.018482
-0.022947
0.023086
-0.007421
-0.005542
0.003869
-0.016359
0.025798
0.030883
0.018350
0.030770
-0.004489
0.029677
0.024855
-0.016240
-0.008273
0.030480
-0.029914
0.002024
-0.030650
-0.001617
-0.026882
-0.010527
0.029196
0.020397
-0.026352
0.001377
-0.024338
-0.008685
0.029029
-0.015863
-0.019991
-0.031532
0.008553
-0.028287
-0.010589
-0.003292
0.022813
0.005564
-0.028469
-0.027494
0.005984
0.002823
0.005064
-0.002198
-0.001718
-0.002672
0.027023
-0.014244
0.021416
0.012392
0.018151
0.006771
0.002990
0.013443
0.000787
-0.021664
-0.005056
-0.017763
0.004526
0.004439
0.028778
0.003490
-0.016073
-0.020536
-0.017423
-0.020541
0.030040
0.015355
-0.004306
0.018802
0.011299
0.002487
-0.010573
0.024972
-0.024151
-0.030802
0.030887
-0.016483
0.001569
-0.029024
0.023794
-0.001259
0.007999
0.005614
-0.014037
0.022655
-0.024975
0.022078
0.008356
-0.002993
0.026371
0.015664
-0.028785
0.031395
-0.011594
-0.017501
-0.027410
-0.018628
0.005561
-0.005415
0.010114
-0.017133
-0.010221
-0.001598
-0.002212
-0.013265
-0.024236
0.005201
0.005060
0.016138
-0.015779
-0.009290
0.025901
0.004025
-0.026438
-0.000253
0.021174
-0.008300
0.016510
-0.021479
-0.014805
-0.023698
0.004499
0.030787
-0.023071
-0.014060
0.011201
0.018520
-0.011814
-0.000144
0.006445
0.013700
-0.002544
-0.000585
0.018077
-0.004633
-0.013735
0.026074
0.003310
0.015388
0.022117
-0.016671
-0.015733
-0.023956
-0.006549
0.005593
-0.003383
0.030730
-0.028917
-0.012688
-0.019014
-0.000381
-0.000155
0.019801
-0.026524
-0.018747
-0.002115
0.001920
-0.008864
-0.012849
-0.007792
0.006292
-0.010946
0.002388
-0.024289
0.004370
-0.009212
-0.002753
-0.012178
0.002476
-0.015077
-0.024482
-0.024597
0.029470
-0.027992
0.027962
0.021660
0.009169
0.017923
-0.002338
-0.002947
-0.027822
-0.026036
-0.014602
-0.025619
-0.022977
-0.030140
-0.026467
0.004902
-0.018510
0.011448
0.013749
-0.003777
0.000696
0.009764
-0.011800
-0.015635
-0.003024
-0.006000
-0.017759
-0.021569
-0.010583
0.006333
0.010837
-0.028427
-0.009307
-0.017198
0.012036
0.024410
0.025104
-0.017994
0.011521
0.003364
0.012068
-0.003080
0.022781
0.002244
0.013646
-0.012798
0.014438
-0.031480
0.013413
0.000659
-0.021343
-0.017374
0.026435
-0.028860
0.017796
0.000248
0.018994
-0.013123
0.027044
0.014009
0.003871
0.000118
-0.013246
-0.001039
-0.006131
0.026194
0.010804
0.006202
-0.031235
0.007421
-0.030551
-0.017786
-0.006877
-0.003880
0.010299
0.029365
0.026400
0.029949
-0.000711
0.029957
-0.006186
-0.006470
-0.029727
-0.013847
0.015934
0.028098
0.010154
-0.002207
-0.023756
0.017736
0.000697
-0.011529
-0.021383
-0.008033
0.017804
-0.013598
0.009876
0.023429
-0.017295
0.019000
-0.001314
-0.004977
0.018485
0.001898
0.004047
-0.006406
-0.027679
0.009153
-0.025225
-0.022748
0.002293
-0.012484
-0.022540
0.012762
0.020463
-0.014200
-0.020675
-0.012673
0.020584
-0.023832
-0.011044
-0.019947
-0.030655
-0.014902
0.016747
0.025247
-0.031600
0.019365
0.019599
-0.018995
0.013634
0.006222
0.025351
0.008084
-0.026937
0.000562
-0.030349
-0.016174
-0.021132
-0.007314
-0.008200
0.016463
0.020985
0.017010
-0.013327
0.010195
0.004328
0.008874
-0.001430
-0.018038
0.024313
0.000333
0.029301
-0.023503
-0.008340
-0.025389
0.013875
-0.009651
-0.003637
0.020868
-0.027870
-0.028659
-0.023571
-0.011363
-0.015899
-0.021664
0.030861
-0.029044
0.001736
-0.026488
0.000071
0.031212
0.006644
-0.013781
-0.015064
0.009809
0.004796
-0.028546
-0.024892
-0.031079
-0.004803
-0.017042
-0.016388
-0.013479
0.012762
0.021365
0.015066
0.024601
0.001417
-0.004432
-0.030156
-0.008903
0.016768
-0.002962
0.025860
-0.015049
-0.000097
-0.019865
0.013064
0.017653
-0.017040
0.030642
0.023250
0.023480
0.016505
-0.015394
0.022346
0.006093
-0.027837
0.016200
0.000680
-0.019082
0.003380
0.016776
0.014117
0.023137
-0.001131
-0.006447
-0.011613
-0.000191
-0.024967
-0.004043
0.029653
0.001902
0.010765
-0.004538
-0.010902
0.017840
0.001743
0.010685
0.025343
-0.006951
-0.026033
0.007695
-0.005386
-0.005763
-0.011848
0.030206
0.010060
-0.015586
-0.018731
0.006933
-0.000549
0.001609
-0.008123
0.029313
-0.027751
0.025314
0.008548
0.005468
0.004500
0.022872
-0.014742
0.021333
0.028858
-0.014227
0.021993
0.010824
-0.006168
0.024084
0.005972
-0.011922
-0.016142
0.026473
-0.022613
0.015081
-0.027774
-0.028889
-0.011474
-0.019939
0.000947
0.002188
0.028094
0.024314
0.010402
0.031340
0.021004
-0.022154
0.031110
0.030360
-0.008790
0.021938
0.023480
0.010967
0.014154
-0.020729
-0.016159
0.001442
0.030818
0.020639
-0.004081
0.007028
0.007875
-0.004360
-0.007427
-0.020128
0.027867
0.019957
0.014042
-0.009956
0.028154
0.028108
-0.010344
0.020680
0.027220
0.014048
0.016986
0.004382
-0.025870
0.009814
-0.028855
-0.023191
-0.009112
-0.028867
0.021313
0.017839
0.007711
-0.009794
0.022019
0.023864
0.015914
0.026554
-0.014687
0.014480
0.011716
0.020893
0.003664
0.012769
-0.023842
0.014005
-0.012948
-0.003884
-0.008911
0.015040
0.020753
0.031160
0.012765
-0.015875
-0.010285
0.021734
0.005702
0.014571
-0.019703
0.006293
0.010199
0.019772
0.015697
-0.014291
0.015362
0.028910
0.015314
0.004112
-0.023897
0.016040
0.029974
-0.006241
0.001240
-0.012524
0.014527
0.010881
-0.017366
0.000444
0.005389
-0.028443
-0.009212
-0.003289
0.012302
-0.024707
-0.011742
-0.022945
0.007339
0.007119
-0.022255
0.022553
0.027219
0.009845
0.020200
-0.019959
-0.006343
-0.013577
-0.018621
0.006316
-0.021736
-0.013212
-0.023148
-0.011394
0.022432
0.018459
0.006211
-0.024566
-0.026625
-0.007601
0.028109
0.003409
-0.001450
-0.021684
0.024861
0.001020
0.006171
